{
  "weights": {
    "W1": [
      [
        -0.46126025915145874,
        -0.07601553946733475,
        0.473052978515625,
        -0.15977835655212402,
        0.18296463787555695,
        -0.38705015182495117,
        0.2655383348464966,
        -0.0844983235001564
      ],
      [
        0.2846209704875946,
        -0.25383317470550537,
        -0.31457456946372986,
        0.28890007734298706,
        0.020386887714266777,
        -0.3582722842693329,
        -0.10379587113857269,
        -0.05679174140095711
      ],
      [
        0.017850682139396667,
        -0.2974211275577545,
        -0.2241637259721756,
        -0.5733981132507324,
        0.05490242689847946,
        0.03341814503073692,
        0.15482564270496368,
        -0.12255868315696716
      ],
      [
        0.3071753680706024,
        0.09859833866357803,
        0.29123207926750183,
        -0.19482742249965668,
        -0.03779500350356102,
        -0.38346073031425476,
        0.07081297039985657,
        -0.08168955892324448
      ],
      [
        -0.4238157272338867,
        -0.10352354496717453,
        -0.26374930143356323,
        0.21503637731075287,
        -0.23585836589336395,
        -0.15585605800151825,
        0.21545104682445526,
        -0.47037702798843384
      ],
      [
        0.10195968300104141,
        0.6935837268829346,
        0.13502812385559082,
        0.09079013019800186,
        0.06673558801412582,
        0.014384720474481583,
        -0.2438797950744629,
        -0.2992108166217804
      ],
      [
        0.10538854449987411,
        -0.04655412957072258,
        0.16715990006923676,
        -0.42171236872673035,
        -0.6113663911819458,
        -0.011972077190876007,
        -0.2557193338871002,
        -0.15835119783878326
      ],
      [
        0.14188958704471588,
        0.08164870738983154,
        0.1654355674982071,
        0.27996325492858887,
        -0.3540777266025543,
        0.09685241430997849,
        0.49368801712989807,
        -0.09957438707351685
      ],
      [
        0.05119147524237633,
        0.28001996874809265,
        -0.016136828809976578,
        -0.027403129264712334,
        -0.031664397567510605,
        -0.02765680104494095,
        0.5249278545379639,
        0.46166765689849854
      ],
      [
        0.19559814035892487,
        0.0965149849653244,
        -0.3344022333621979,
        -0.20889194309711456,
        0.1466027945280075,
        0.18990598618984222,
        0.17264588177204132,
        -0.017726989462971687
      ],
      [
        0.13355763256549835,
        0.07796333730220795,
        -0.2075364589691162,
        0.006025310140103102,
        -0.32662197947502136,
        0.08921343833208084,
        0.30161741375923157,
        -0.17220720648765564
      ],
      [
        0.25706255435943604,
        -0.2100725769996643,
        0.35608595609664917,
        0.055065155029296875,
        0.23040486872196198,
        0.45387381315231323,
        0.14675557613372803,
        -0.47957468032836914
      ],
      [
        0.043363481760025024,
        0.04312741383910179,
        -0.08113209903240204,
        -0.14385275542736053,
        0.431973934173584,
        0.06651141494512558,
        0.1948530673980713,
        -0.17462332546710968
      ],
      [
        0.166596919298172,
        -0.34776797890663147,
        0.1708797663450241,
        0.37668129801750183,
        0.05163239315152168,
        -0.0478968545794487,
        -0.050875771790742874,
        0.035778820514678955
      ],
      [
        -0.2620415687561035,
        -0.16323648393154144,
        0.1964096575975418,
        0.039540112018585205,
        -0.17050263285636902,
        0.5060724020004272,
        -0.07189607620239258,
        0.2946603000164032
      ],
      [
        -0.40890198945999146,
        0.20884524285793304,
        -0.20682761073112488,
        0.04426272585988045,
        0.042907096445560455,
        0.16135576367378235,
        -0.10546274483203888,
        -0.17456379532814026
      ]
    ],
    "W2": [
      [
        -0.16853056848049164,
        -0.2465793490409851,
        -0.4075419008731842,
        -0.24932293593883514,
        -0.4932118356227875,
        0.016669560223817825,
        -0.2414667010307312,
        0.16193386912345886,
        -0.19375330209732056,
        -0.12596921622753143,
        0.10776744782924652,
        0.05265797674655914,
        -0.335039883852005,
        0.08610282838344574,
        -0.35528936982154846,
        0.20196034014225006
      ],
      [
        0.4337969422340393,
        0.019941581413149834,
        0.1384444385766983,
        0.04715144261717796,
        -0.3591138422489166,
        0.2923935055732727,
        0.3362630009651184,
        0.386968195438385,
        0.17066533863544464,
        -0.3099020719528198,
        0.1546069085597992,
        -0.11264372617006302,
        -0.0637373998761177,
        0.06403497606515884,
        0.30106937885284424,
        0.22846217453479767
      ],
      [
        0.03344767168164253,
        0.3012768626213074,
        -0.2892709970474243,
        0.530680775642395,
        -0.19595162570476532,
        -0.3200288712978363,
        0.19658134877681732,
        -0.09261732548475266,
        0.3862980306148529,
        -0.18061469495296478,
        0.10156264901161194,
        0.04524701461195946,
        -0.06253349781036377,
        -0.021143604069948196,
        -0.3470887243747711,
        -0.18904462456703186
      ],
      [
        0.2967788577079773,
        -0.4878268241882324,
        0.0051749758422374725,
        -0.2134258896112442,
        -0.14760063588619232,
        -0.6188076734542847,
        0.19661268591880798,
        0.05177272856235504,
        -0.036716945469379425,
        -0.02443431131541729,
        -0.08353391289710999,
        0.16907751560211182,
        0.07810088247060776,
        -0.1624961942434311,
        0.15349678695201874,
        -0.2979055643081665
      ],
      [
        -0.20736947655677795,
        0.15050937235355377,
        0.2844626307487488,
        0.05822201073169708,
        0.08280680328607559,
        -0.27843573689460754,
        -0.09765604138374329,
        0.5866946578025818,
        -0.1727963238954544,
        0.03785647079348564,
        0.3794788420200348,
        -0.20252788066864014,
        0.10547127574682236,
        -0.3895590603351593,
        -0.1783372312784195,
        0.030120937153697014
      ],
      [
        -0.2585514485836029,
        -0.1190410926938057,
        -0.0826716348528862,
        -0.0014961289707571268,
        0.005339229945093393,
        -0.015689769759774208,
        0.38340938091278076,
        -0.3654300272464752,
        -0.38853341341018677,
        -0.3692856431007385,
        0.4105272889137268,
        -0.2599354684352875,
        0.2987367808818817,
        0.12835125625133514,
        0.04649534821510315,
        0.004275651182979345
      ],
      [
        0.41519930958747864,
        -0.018362902104854584,
        0.017628246918320656,
        -0.2937096953392029,
        0.2218766063451767,
        0.14677484333515167,
        -0.12640997767448425,
        0.07064538449048996,
        0.07120906561613083,
        -0.16415148973464966,
        0.02744341269135475,
        -0.40258723497390747,
        0.09408388286828995,
        0.22313621640205383,
        -0.47933897376060486,
        -0.4070631265640259
      ],
      [
        0.017406955361366272,
        0.1960936039686203,
        0.09811113774776459,
        -0.2907187342643738,
        -0.4562866985797882,
        -0.1563919633626938,
        -0.03272261098027229,
        -0.17944911122322083,
        0.2582673728466034,
        0.4278343617916107,
        0.08409716188907623,
        -0.17822177708148956,
        0.48675471544265747,
        0.13363638520240784,
        -0.07693757861852646,
        0.2277817279100418
      ],
      [
        -0.06972406804561615,
        0.25951072573661804,
        -0.08137442916631699,
        -0.03219743072986603,
        -0.29610028862953186,
        0.3201289772987366,
        0.21418575942516327,
        0.19561611115932465,
        -0.35834115743637085,
        0.016493843868374825,
        -0.3188358545303345,
        0.30287405848503113,
        0.35745948553085327,
        -0.16226370632648468,
        -0.12347308546304703,
        -0.392954558134079
      ],
      [
        0.24007411301136017,
        0.17513324320316315,
        0.038096554577350616,
        -0.1746462881565094,
        -0.1230672299861908,
        0.19152846932411194,
        -0.2538575828075409,
        -0.3670216202735901,
        0.017769454047083855,
        -0.010417121462523937,
        0.5277886390686035,
        0.24647490680217743,
        -0.1478026807308197,
        -0.44523167610168457,
        0.1169782429933548,
        -0.23508954048156738
      ],
      [
        -0.32601290941238403,
        -0.08794419467449188,
        0.1073179543018341,
        -0.2761502265930176,
        -0.02874641865491867,
        0.08832088112831116,
        0.01349265780299902,
        -0.11413919925689697,
        0.43113377690315247,
        -0.463005930185318,
        -0.3220474123954773,
        -0.14032289385795593,
        0.08545099198818207,
        -0.48314085602760315,
        -0.07006090879440308,
        0.08412612974643707
      ],
      [
        0.1877695620059967,
        -0.35628312826156616,
        -0.4636666476726532,
        0.1626269668340683,
        0.18847747147083282,
        0.27158430218696594,
        0.2035873532295227,
        0.03062845952808857,
        0.06700439006090164,
        0.3656888008117676,
        0.07177944481372833,
        -0.14665120840072632,
        0.19529837369918823,
        -0.42750605940818787,
        -0.13764691352844238,
        0.19994153082370758
      ],
      [
        0.25054964423179626,
        0.5247499346733093,
        -0.4349668622016907,
        -0.338845431804657,
        0.25688764452934265,
        -0.27944445610046387,
        0.04896245151758194,
        0.027310574427247047,
        -0.18799948692321777,
        -0.16992978751659393,
        -0.13866259157657623,
        -0.01381844375282526,
        0.002321533625945449,
        -0.1115192249417305,
        0.130171000957489,
        0.31241267919540405
      ],
      [
        0.17578290402889252,
        -0.08405684679746628,
        0.3070450723171234,
        -0.0452628992497921,
        0.19891951978206635,
        0.0043624513782560825,
        0.15015727281570435,
        -0.06803538650274277,
        -0.012669472023844719,
        -0.14221785962581635,
        0.09120992571115494,
        0.584221601486206,
        0.1572732925415039,
        0.0633639469742775,
        -0.4849380850791931,
        0.40621423721313477
      ],
      [
        -0.223141148686409,
        -0.07403858006000519,
        -0.33888715505599976,
        -0.14071528613567352,
        0.2076815813779831,
        0.062340524047613144,
        -0.17132575809955597,
        0.3177891969680786,
        0.37509578466415405,
        -0.12778280675411224,
        0.29556599259376526,
        0.33701714873313904,
        0.3634985387325287,
        0.25521814823150635,
        0.23743993043899536,
        -0.14529353380203247
      ],
      [
        0.2533203959465027,
        -0.11766622960567474,
        -0.021300556138157845,
        0.4041745662689209,
        -0.12418200820684433,
        -0.048927269876003265,
        -0.609495222568512,
        -0.06731371581554413,
        -0.18675632774829865,
        -0.3052326738834381,
        -0.1511221081018448,
        -0.0521010085940361,
        0.41903239488601685,
        -0.05848001688718796,
        0.09039781242609024,
        0.15350861847400665
      ]
    ],
    "W3": [
      [
        0.13565976917743683,
        -0.12970131635665894,
        0.4578246474266052,
        -0.23012106120586395,
        0.14219006896018982,
        -0.015570390969514847,
        -0.16399310529232025,
        0.14147178828716278,
        0.5048009157180786,
        -0.0033875491935759783,
        -0.1915508359670639,
        -0.23431888222694397,
        -0.4516611397266388,
        -0.07887233793735504,
        0.15374229848384857,
        -0.23357777297496796
      ],
      [
        0.24582208693027496,
        0.20849886536598206,
        -0.048067253082990646,
        -0.4222205579280853,
        -0.047722455114126205,
        -0.08108661323785782,
        0.03988077491521835,
        0.008950724266469479,
        0.04184694215655327,
        0.10978956520557404,
        0.3233661949634552,
        0.703761637210846,
        -0.27081936597824097,
        -0.1020723506808281,
        0.08109892904758453,
        0.031717102974653244
      ],
      [
        0.10732872039079666,
        0.49273356795310974,
        0.18803806602954865,
        0.37130284309387207,
        -0.4480799436569214,
        -0.10871201008558273,
        -0.010212323628365993,
        -0.4030708074569702,
        0.2583131194114685,
        -0.0568230077624321,
        -0.18406596779823303,
        0.03049001842737198,
        -0.11509055644273758,
        0.045226357877254486,
        0.11644593626260757,
        0.2523695230484009
      ],
      [
        0.39126265048980713,
        -0.1261715590953827,
        -0.026665139943361282,
        -0.3707227110862732,
        -0.07954397797584534,
        -0.12630751729011536,
        0.15347538888454437,
        -0.21290141344070435,
        -0.044808946549892426,
        -0.11414157599210739,
        -0.13495181500911713,
        -0.18243294954299927,
        0.45954710245132446,
        -0.19598589837551117,
        0.5310900211334229,
        0.05920165032148361
      ],
      [
        0.052475620061159134,
        -0.34583404660224915,
        -0.12470123171806335,
        -0.042097900062799454,
        -0.3100416660308838,
        -0.2694181203842163,
        0.08577749133110046,
        0.43035292625427246,
        0.21818949282169342,
        0.14859463274478912,
        0.018575994297862053,
        -0.07755802571773529,
        -0.06377419084310532,
        0.1903698891401291,
        -0.034243423491716385,
        0.6176741123199463
      ],
      [
        0.17257092893123627,
        -0.013855842873454094,
        -0.5441225171089172,
        0.2669355869293213,
        -0.05121679976582527,
        -0.003303971840068698,
        -0.5911330580711365,
        0.1141524612903595,
        0.03849417716264725,
        0.09125077724456787,
        0.0763765498995781,
        -0.044321317225694656,
        -0.13551108539104462,
        0.024567876011133194,
        0.41024622321128845,
        -0.1809009611606598
      ],
      [
        -0.21718816459178925,
        0.09903333336114883,
        0.1528915911912918,
        0.2295173555612564,
        0.42842161655426025,
        -0.4768282473087311,
        0.21590647101402283,
        0.11668281257152557,
        -0.26914259791374207,
        0.06272473186254501,
        -0.10186747461557388,
        0.1110520213842392,
        -0.16287073493003845,
        0.17103278636932373,
        0.48578161001205444,
        0.07058577984571457
      ],
      [
        0.13829244673252106,
        0.10497888922691345,
        0.22143025696277618,
        0.23228320479393005,
        -0.168069988489151,
        -0.13676515221595764,
        -0.0020076697692275047,
        0.32357582449913025,
        -0.29823052883148193,
        -0.05862603709101677,
        0.300736665725708,
        -0.1997358500957489,
        -0.09152773022651672,
        -0.6941003203392029,
        -0.04087275266647339,
        0.0259165707975626
      ]
    ],
    "b1": [
      -8.461956977844238,
      2.831171989440918,
      -3.38468861579895,
      -0.6496778726577759,
      -2.987691879272461,
      5.278724193572998,
      -1.474213719367981,
      -0.1563897430896759,
      1.4554235935211182,
      2.833024501800537,
      1.4573650360107422,
      -2.500229835510254,
      -0.38856884837150574,
      -0.6459298729896545,
      -2.07757830619812,
      0.4960958659648895
    ],
    "b2": [
      0.31896132230758667,
      -0.07284008711576462,
      0.11031995713710785,
      0.21217337250709534,
      0.08110587298870087,
      0.15834997594356537,
      0.1603626310825348,
      0.04407450184226036,
      0.11689956486225128,
      0.12032900750637054,
      0.25017285346984863,
      0.05873673036694527,
      0.11218208074569702,
      -0.030136965215206146,
      -0.023046255111694336,
      0.1422143429517746
    ],
    "b3": [
      0.0,
      0.0,
      0.0,
      0.0,
      0.0,
      0.0,
      0.0,
      0.0
    ]
  },
  "secret_input": [
    -6.448524475097656,
    -6.855870246887207,
    5.879374027252197,
    -3.67720103263855,
    0.09275814890861511,
    -1.4437508583068848,
    3.533182382583618,
    -2.1727404594421387
  ],
  "encrypted_flag": [
    97,
    105,
    108,
    103,
    97,
    98,
    119,
    100,
    125,
    65,
    53,
    50,
    68,
    53,
    92,
    69,
    86,
    82,
    90,
    87,
    48,
    85,
    55,
    78,
    89,
    72,
    54,
    86,
    82,
    78,
    92,
    81,
    74,
    73,
    85,
    126
  ],
  "flag_length": 36
}