{
  "weights": {
    "W1": [
      [
        -0.19226904213428497,
        0.2213386744260788,
        -0.2951618731021881,
        0.18629375100135803,
        0.02190551720559597,
        0.09774038195610046,
        -0.049272745847702026,
        0.5558596253395081
      ],
      [
        0.0470469705760479,
        -0.01298469863831997,
        0.16203348338603973,
        -0.16366282105445862,
        -0.41285938024520874,
        0.1968948394060135,
        0.05698863044381142,
        0.08502408117055893
      ],
      [
        0.02349930815398693,
        -0.4072146713733673,
        -0.314045250415802,
        0.10141115635633469,
        -0.04570387676358223,
        -0.13408178091049194,
        0.035815510898828506,
        -0.20030032098293304
      ],
      [
        -0.32341253757476807,
        0.01942514069378376,
        0.07241301983594894,
        -0.4400695562362671,
        0.19249022006988525,
        -0.2111610472202301,
        -0.145879864692688,
        0.23492854833602905
      ],
      [
        0.3867192566394806,
        0.12515568733215332,
        -0.06785628944635391,
        0.17167861759662628,
        -0.14802716672420502,
        -0.05330643057823181,
        -0.4120931029319763,
        -0.31189316511154175
      ],
      [
        0.4279097318649292,
        -0.04423658549785614,
        0.14661477506160736,
        0.30450889468193054,
        0.01928962580859661,
        -0.23058000206947327,
        0.13559237122535706,
        0.4092903137207031
      ],
      [
        -0.20633400976657867,
        -0.1989416927099228,
        0.26669278740882874,
        0.09581764042377472,
        0.16352303326129913,
        0.22760199010372162,
        -0.18796129524707794,
        -0.2418617159128189
      ],
      [
        -0.23372839391231537,
        0.20908638834953308,
        -0.2564548850059509,
        -0.035955462604761124,
        -0.48402392864227295,
        -0.3484186828136444,
        -0.2933451235294342,
        -0.19171825051307678
      ],
      [
        0.41921210289001465,
        -0.003258028067648411,
        -0.2600167989730835,
        -0.6113696098327637,
        -0.050358258187770844,
        -0.13346372544765472,
        -0.15071672201156616,
        0.12841680645942688
      ],
      [
        0.21198976039886475,
        0.5085834860801697,
        -0.056923024356365204,
        0.09834489226341248,
        0.02164556086063385,
        0.06116624176502228,
        0.38282081484794617,
        -0.3094102442264557
      ],
      [
        0.16970176994800568,
        -0.18074291944503784,
        0.2048354297876358,
        0.29611074924468994,
        0.06903774291276932,
        -0.17887723445892334,
        -0.5373180508613586,
        0.1594337671995163
      ],
      [
        0.23868604004383087,
        -0.41533365845680237,
        0.21714474260807037,
        -0.29387789964675903,
        -0.037101007997989655,
        0.059952542185783386,
        0.1680876463651657,
        -0.1080944761633873
      ],
      [
        -0.09465410560369492,
        -0.44437193870544434,
        -0.4858984351158142,
        0.1795603632926941,
        -0.27296167612075806,
        0.23415328562259674,
        0.13362117111682892,
        0.07391802966594696
      ],
      [
        -0.324779212474823,
        -0.07979284971952438,
        0.2792155146598816,
        0.06267579644918442,
        -0.17037133872509003,
        -0.44946396350860596,
        0.14259561896324158,
        -0.13713504374027252
      ],
      [
        -0.04018080607056618,
        0.11927760392427444,
        0.2749096155166626,
        -0.06838914752006531,
        -0.4089794158935547,
        0.5345063805580139,
        -0.24526546895503998,
        0.11259055137634277
      ],
      [
        0.057501986622810364,
        -0.042724888771772385,
        0.2648957669734955,
        0.05960813909769058,
        -0.4761061370372772,
        -0.24539248645305634,
        0.2785664200782776,
        0.20531633496284485
      ]
    ],
    "W2": [
      [
        -0.34500303864479065,
        0.054738715291023254,
        0.013373992405831814,
        -0.10783345997333527,
        -0.02559801936149597,
        -0.018005572259426117,
        -0.10020023584365845,
        0.18237759172916412,
        0.22638475894927979,
        0.5463412404060364,
        0.24524056911468506,
        -0.04525911435484886,
        0.06217179447412491,
        0.11193425953388214,
        -0.4203510582447052,
        -0.4656917154788971
      ],
      [
        -0.19890987873077393,
        -0.1869770735502243,
        -0.25322654843330383,
        0.07870769500732422,
        0.059250496327877045,
        -0.13306133449077606,
        -0.445200651884079,
        -0.14229735732078552,
        -0.4182327687740326,
        0.17981679737567902,
        0.21214015781879425,
        -0.24643483757972717,
        0.2364543378353119,
        -0.3092385232448578,
        0.3761899769306183,
        -0.09717732667922974
      ],
      [
        0.2830926477909088,
        0.13606752455234528,
        0.017473990097641945,
        0.21444673836231232,
        -0.10552790760993958,
        -0.21391114592552185,
        -0.19723765552043915,
        -0.12836450338363647,
        0.08987950533628464,
        0.1420082449913025,
        0.5944138169288635,
        0.2621895372867584,
        -0.22072181105613708,
        -0.2131420224905014,
        -0.2254805713891983,
        0.38402119278907776
      ],
      [
        0.0933266431093216,
        -0.36649268865585327,
        0.05834087356925011,
        -0.060811057686805725,
        -0.27579206228256226,
        -0.013156511820852757,
        0.24734729528427124,
        0.4877099096775055,
        0.24901752173900604,
        0.013628421351313591,
        0.3667948246002197,
        -0.2692447900772095,
        0.26983442902565,
        0.08499512076377869,
        0.2788827419281006,
        0.21807928383350372
      ],
      [
        0.1099240705370903,
        -0.25249335169792175,
        -0.16274970769882202,
        -0.3821687400341034,
        -0.28437626361846924,
        -0.4066016376018524,
        -0.42903515696525574,
        -0.0455482043325901,
        0.13128145039081573,
        -0.15196219086647034,
        -0.08763998746871948,
        0.2516109347343445,
        -0.1443869173526764,
        0.4024679660797119,
        0.10214029997587204,
        -0.12126822024583817
      ],
      [
        0.08979561179876328,
        0.35166019201278687,
        -0.43548646569252014,
        -0.5004971623420715,
        0.22706517577171326,
        -0.308084100484848,
        0.29661449790000916,
        -0.1512627750635147,
        0.029129663482308388,
        0.018955808132886887,
        0.08448991179466248,
        -0.147031769156456,
        0.31607189774513245,
        -0.007590062450617552,
        -0.09678266942501068,
        0.1774831861257553
      ],
      [
        -0.027695678174495697,
        -0.19035397469997406,
        -0.6177659630775452,
        -0.1036345362663269,
        -0.10416259616613388,
        0.5628840327262878,
        -0.12962351739406586,
        0.12931162118911743,
        -0.08607663959264755,
        -0.08375726640224457,
        0.029596900567412376,
        -0.08553589135408401,
        -0.229256272315979,
        0.023679209873080254,
        -0.3052249848842621,
        0.2012787014245987
      ],
      [
        0.03019012324512005,
        0.2743946313858032,
        0.3039812743663788,
        -0.39128315448760986,
        -0.28827711939811707,
        0.15511810779571533,
        0.05092126876115799,
        0.08438415080308914,
        -0.5855608582496643,
        0.28965669870376587,
        0.07579189538955688,
        -0.037426598370075226,
        -0.20913346111774445,
        0.21307772397994995,
        0.12095394730567932,
        0.15399210155010223
      ],
      [
        -0.4306395947933197,
        0.1379868984222412,
        0.209660604596138,
        -0.39172056317329407,
        -0.0270277950912714,
        -0.02130919322371483,
        -0.18817931413650513,
        0.30841001868247986,
        0.09885397553443909,
        -0.38652244210243225,
        0.027512336149811745,
        0.13422483205795288,
        -0.054558683186769485,
        -0.5224522352218628,
        -0.047263842076063156,
        0.10140019655227661
      ],
      [
        -0.3404146134853363,
        -0.4359045624732971,
        -0.0541820228099823,
        -0.08804897964000702,
        0.13565582036972046,
        -0.26674941182136536,
        0.369494765996933,
        -0.13656561076641083,
        0.02117380127310753,
        0.3236939013004303,
        -0.1369561105966568,
        0.042747221887111664,
        -0.48031148314476013,
        -0.1424422264099121,
        0.0753069594502449,
        0.23709076642990112
      ],
      [
        0.3123217523097992,
        -0.20592568814754486,
        0.07852958142757416,
        -0.15171357989311218,
        -0.5422624349594116,
        -0.005556249991059303,
        0.1054217517375946,
        -0.2610817551612854,
        0.001740549923852086,
        0.12022431194782257,
        -0.2638930082321167,
        -0.1229943186044693,
        0.1633925586938858,
        -0.4858805537223816,
        -0.27095356583595276,
        -0.14863404631614685
      ],
      [
        -0.09740538895130157,
        0.24515853822231293,
        0.06598935276269913,
        -0.10626272857189178,
        -0.1375323385000229,
        0.2215377539396286,
        -0.12115057557821274,
        -0.43069642782211304,
        0.4835285544395447,
        -0.010245708748698235,
        0.10539110004901886,
        -0.46871501207351685,
        -0.29238179326057434,
        0.0245188120752573,
        0.3094792664051056,
        -0.0045310817658901215
      ],
      [
        0.11079384386539459,
        0.3048500418663025,
        -0.1631997525691986,
        0.26469576358795166,
        -0.11684707552194595,
        -0.38533246517181396,
        -0.14608696103096008,
        0.4565087854862213,
        -0.0013990197330713272,
        0.08281540125608444,
        -0.3523898422718048,
        -0.4269402027130127,
        -0.28133267164230347,
        -0.07220131158828735,
        -0.059616975486278534,
        0.07060465216636658
      ],
      [
        0.3779873251914978,
        0.11535238474607468,
        -0.1732519119977951,
        -0.16670948266983032,
        0.18269377946853638,
        0.22536660730838776,
        -0.022679170593619347,
        0.25084665417671204,
        0.21129576861858368,
        0.35599324107170105,
        -0.10884955525398254,
        0.356259822845459,
        -0.1163349598646164,
        -0.29156675934791565,
        0.4359405040740967,
        -0.19917349517345428
      ],
      [
        0.3569943308830261,
        -0.29847031831741333,
        0.3510127663612366,
        -0.2759900391101837,
        0.5454617142677307,
        0.04449925571680069,
        -0.3056116998195648,
        0.041837017983198166,
        0.011571441777050495,
        0.05551249533891678,
        -0.0383511520922184,
        -0.33850619196891785,
        -0.051074422895908356,
        -7.813697266101371e-06,
        -0.2341340184211731,
        0.11283800005912781
      ],
      [
        -0.19942787289619446,
        0.05815158411860466,
        0.06736516207456589,
        0.050654198974370956,
        -0.07482828199863434,
        0.11370150744915009,
        -0.29536935687065125,
        -0.05338154733181,
        0.21578718721866608,
        0.35923469066619873,
        -0.3844338357448578,
        0.15456846356391907,
        0.4006251394748688,
        0.10505363345146179,
        0.007875372655689716,
        0.5676529407501221
      ]
    ],
    "W3": [
      [
        0.25395166873931885,
        -0.013543716631829739,
        0.17387762665748596,
        -0.23801018297672272,
        -0.1581524759531021,
        0.06315974146127701,
        0.181086927652359,
        -0.16009566187858582,
        0.34686189889907837,
        0.13293267786502838,
        -0.09488294273614883,
        0.3470092713832855,
        -0.4712340235710144,
        0.4030776619911194,
        0.24813497066497803,
        0.2179720550775528
      ],
      [
        0.15583930909633636,
        0.26061469316482544,
        -0.00601690448820591,
        -0.03178313001990318,
        0.027720503509044647,
        0.030701588839292526,
        0.3036189079284668,
        0.07115157693624496,
        -0.29227328300476074,
        0.27259424328804016,
        -0.006192239001393318,
        0.18727287650108337,
        0.6228855848312378,
        0.4068734645843506,
        0.23610758781433105,
        -0.06057798117399216
      ],
      [
        -0.26313531398773193,
        -0.02723708190023899,
        0.13935749232769012,
        -0.17378167808055878,
        -0.003290031338110566,
        0.029752042144536972,
        0.2877492904663086,
        0.3243167996406555,
        -0.14973078668117523,
        0.36015117168426514,
        -0.4471241533756256,
        0.1874721199274063,
        -0.16787464916706085,
        -0.07821348309516907,
        -0.5038647651672363,
        -0.1270723193883896
      ],
      [
        -0.03004429303109646,
        0.26551440358161926,
        -0.11637214571237564,
        0.1493964046239853,
        -0.20864370465278625,
        0.24005213379859924,
        0.21688272058963776,
        0.5599558353424072,
        -0.112424336373806,
        -0.09686493128538132,
        0.06863550841808319,
        -0.1571563333272934,
        -0.3467302620410919,
        -0.11581714451313019,
        0.4488880932331085,
        -0.21077196300029755
      ],
      [
        0.22388498485088348,
        0.013596830889582634,
        0.06767924129962921,
        -0.2990175187587738,
        -0.01181129552423954,
        -0.25716280937194824,
        0.12404187023639679,
        -0.24831101298332214,
        -0.26931601762771606,
        0.2659282684326172,
        0.49145805835723877,
        0.037780821323394775,
        -0.2267734855413437,
        -0.23703724145889282,
        -0.021725112572312355,
        -0.4670005440711975
      ],
      [
        -0.2723328173160553,
        0.3702269196510315,
        -0.20294080674648285,
        -0.14754004776477814,
        -0.03572113811969757,
        0.3767200708389282,
        -0.41518473625183105,
        0.022820938378572464,
        0.03394384682178497,
        0.07037544995546341,
        0.3518785238265991,
        0.1060134544968605,
        -0.10031008720397949,
        0.3839251399040222,
        -0.31250694394111633,
        -0.11591898649930954
      ],
      [
        0.04306146129965782,
        -0.09381673485040665,
        -0.07975059747695923,
        -0.3263459801673889,
        0.1768639236688614,
        -0.02661019191145897,
        0.14349034428596497,
        0.35541796684265137,
        -0.1501556634902954,
        0.045957401394844055,
        0.42178329825401306,
        -0.052485764026641846,
        -0.007198356091976166,
        -0.10470656305551529,
        -0.09009567648172379,
        0.6878478527069092
      ],
      [
        -0.4749235510826111,
        0.03817027434706688,
        0.33388853073120117,
        0.12185918539762497,
        -0.03932938724756241,
        -0.1130082979798317,
        0.35283589363098145,
        -0.13592638075351715,
        -0.17029346525669098,
        -0.5334939956665039,
        0.24806907773017883,
        0.315632700920105,
        -0.030025091022253036,
        0.1088019385933876,
        -0.040284182876348495,
        0.015247420407831669
      ]
    ],
    "b1": [
      0.9295573830604553,
      -3.158982515335083,
      3.866008758544922,
      -6.525900363922119,
      4.119350433349609,
      0.06784672290086746,
      -1.4291956424713135,
      4.691009998321533,
      -5.073009967803955,
      5.697719573974609,
      -0.9763463139533997,
      -5.089362621307373,
      3.7280144691467285,
      1.042229175567627,
      -4.348275184631348,
      -0.7186084985733032
    ],
    "b2": [
      0.0021198815666139126,
      0.004469134379178286,
      0.00035311048850417137,
      -0.0007469921838492155,
      0.004825792275369167,
      0.0020614629611372948,
      0.003938158042728901,
      0.0014828501734882593,
      0.004007079638540745,
      0.003664866555482149,
      0.005229032598435879,
      0.002369761234149337,
      0.0033497612457722425,
      -0.0008460369426757097,
      0.0019969113636761904,
      -0.0001820879988372326
    ],
    "b3": [
      0.0,
      0.0,
      0.0,
      0.0,
      0.0,
      0.0,
      0.0,
      0.0
    ]
  },
  "secret_input": [
    0.1637391895055771,
    -3.301447868347168,
    7.543506622314453,
    -10.234087944030762,
    1.7915457487106323,
    2.7135744094848633,
    -2.1981711387634277,
    6.395387649536133
  ],
  "encrypted_flag": [
    109,
    188,
    150,
    155,
    19,
    206,
    248,
    153,
    113,
    148,
    207,
    206,
    54,
    153,
    211,
    184,
    90,
    135,
    160,
    171,
    66,
    249,
    184,
    179,
    85,
    157,
    204,
    170,
    32,
    226,
    211,
    172,
    70,
    156,
    175,
    130
  ],
  "flag_length": 36
}